clear 0.11459 0.37628 -0.44461 0.38644 0.29883 -0.61866 -0.39377 0.41016 0.088781 2.2093 0.18587 -0.15179 -0.060201 0.076746 -0.33144 -0.12493 -0.27507 1.5444 -0.11668 -0.38164 0.022445 0.11902 0.36468 0.0098206 0.0032569 -0.00074937 0.19573 -0.087381 -0.073444 -0.61756 -0.096967 0.43645 -0.13536 -0.24845 -0.097957 -0.17252 0.16788 -0.054544 0.34137 -0.55951 0.3938 -0.15863 0.29659 -0.034269 0.23791 -0.40724 -0.22383 -0.054879 -0.17356 -0.36268 -0.14001 0.80702 -0.093889 0.51068 -0.036048 -0.10765 -0.51031 0.20076 -0.064633 -0.14064 -0.41484 -0.14732 0.20942 -0.056012 -0.011032 0.024029 0.15398 -0.13978 0.022219 0.32865 -0.18081 0.26976 0.34787 -0.043541 -0.10642 -0.090547 -0.36052 -0.064852 -0.3544 0.266 0.0355 -0.042961 -0.15756 0.25284 -0.098167 -0.19352 0.23623 0.090639 0.2817 -0.053646 -0.10835 -0.22275 0.31428 0.65467 0.50628 -0.24996 0.028314 -0.25133 -0.053009 -0.36506 0.57182 0.069903 -0.11675 -0.3179 0.25789 -1.3994 -0.040361 -0.29558 0.1432 0.35036 -0.41417 0.076727 -0.087438 -0.33099 0.46587 0.35507 0.0042093 -0.076626 -0.035903 -0.060786 -0.052048 -0.20681 -0.33931 0.41038 -0.082988 0.16144 0.18643 -0.4408 0.058007 -0.53364 0.034777 0.031614 0.20991 -0.37444 0.34652 0.51075 0.1857 -0.11296 0.010946 -0.10742 -1.1238 0.32015 0.027384 0.32391 0.030262 -0.39827 -0.51784 -0.10698 -0.13116 0.34126 0.12356 -0.43343 0.14164 -0.14801 -0.35924 0.036619 -0.44282 -0.023878 -0.19304 -0.06383 -0.42605 -0.16568 0.012715 0.25121 0.20004 -0.064583 -0.20249 0.0099266 0.11132 0.21214 -0.086184 -0.036752 -0.20024 -0.073729 0.22825 0.2477 0.4094 -0.29654 0.13996 0.24038 -0.30912 -0.095541 0.22394 0.0077316 0.14654 -0.37492 -0.22715 -0.0013106 -0.19762 0.30995 -0.048857 0.10937 0.10238 0.28359 -0.017029 0.096741 -0.14228 0.14462 0.55484 0.16207 -0.21956 0.014377 -0.22471 -0.09599 0.30319 0.0092487 0.036494 0.168 -0.15907 0.10631 0.50605 0.2258 0.16696 -0.67985 0.31687 0.05869 0.10707 -0.25102 -0.24205 -0.12228 -0.2127 -0.083029 -0.091389 0.51865 0.065504 0.054825 -0.012334 -0.25953 -0.10069 0.13295 0.055107 0.35323 0.091882 0.37121 0.1971 0.15593 0.40568 -0.28079 0.21307 0.26379 0.33928 0.14189 0.29396 -0.016269 0.015036 0.18294 0.13721 -0.24216 -0.10866 0.27268 -0.044417 -0.056311 -0.25859 0.04719 0.1178 0.60946 0.017898 -0.2638 -0.34359 -0.037079 0.14495 0.3619 0.35778 0.052657 0.26774 -0.21689 -0.056285 0.18047 0.65961 -0.14447 0.21677 0.38492 -0.1936 -0.31175 0.14695 0.128 0.14548 0.28616 -0.15478 0.095315 -0.042149 0.046885 0.021759 0.0062832 -0.15349 -0.19402 -0.19138 0.24391 0.33854 -0.01421 -0.49436 0.46739 0.05104 -0.36898 0.32925 0.15176 -0.1145 0.024973 0.34895 0.14452
darkness 0.42054 -0.28221 0.43191 0.10109 -0.13431 -0.59738 -0.17013 0.65039 -0.20849 1.8614 0.36682 -0.075311 -0.78368 0.14603 -0.26637 0.26298 0.1837 0.88503 -0.42745 -0.11111 0.092292 -0.46298 -0.31666 0.2541 -0.68222 -0.18859 0.36461 0.34838 -0.17017 -0.032299 0.12178 0.057745 -1.3745 -0.17279 -0.0016542 0.027921 -0.13071 0.223 0.057632 -0.051348 0.37041 -0.30735 -0.2689 0.021681 0.4954 -0.61312 -0.098715 0.26173 0.011605 -0.10647 0.057839 0.059454 -0.1319 0.20957 -0.0022241 0.1281 -0.24138 0.020868 0.036732 -0.60799 -0.022155 -0.039776 0.19212 -0.69152 -0.77105 0.21268 -0.08549 -0.53749 -0.0066248 -0.094987 0.11321 -0.17481 0.14701 0.029092 -0.16665 0.15964 -0.11979 -0.2843 0.23 0.16822 -0.56907 0.32057 -0.4472 -0.086156 0.97279 -0.55317 0.36686 -0.67608 0.18569 0.38444 0.064167 0.050467 -0.04112 -0.013556 0.21683 0.53639 0.0031007 0.24508 -0.086254 0.0035883 0.68298 -0.20187 -0.38048 -0.10888 0.12987 -1.0647 -0.14031 0.54296 -0.64662 -0.2634 0.36206 0.06671 0.077064 -0.215 0.0082982 0.42466 -0.11703 0.4064 0.17993 -0.20162 -0.49442 -0.43698 -0.020174 0.2626 -0.02927 -0.75221 0.12383 -0.20531 -0.11617 0.047846 -0.060462 -0.17197 0.53058 -0.094827 0.21084 -0.075198 0.31853 -0.17405 -0.2889 -0.27171 -2.4084 -0.36519 -0.20451 -0.18229 0.00019186 0.86753 0.17186 0.25285 -0.12431 -0.76331 -0.12833 -0.85518 0.5939 0.15582 0.18508 0.018475 -0.26624 -0.17157 -0.090081 0.23141 0.066285 -0.18041 -0.083307 0.66491 0.64951 -0.24161 -0.015899 -0.2778 -0.50589 -0.089627 0.22934 -0.073042 0.4508 -0.2816 0.32367 0.45083 0.26267 -0.75267 0.076915 -0.75527 -0.071962 -0.33084 0.17528 0.25783 0.22959 -0.053968 -0.56677 -0.39038 0.4588 8.9096e-05 -0.23049 0.16875 0.14032 -0.21788 -0.23867 0.20671 0.12255 0.021224 -0.4274 0.030727 -0.19033 0.18705 -0.29204 0.19436 -0.27157 -0.38608 0.27236 -0.073234 -0.065863 -0.32672 0.39126 -0.72211 -0.019336 -0.19142 0.26407 -0.75508 0.27039 -0.27833 0.40776 -0.051089 0.50923 -0.31154 -0.15879 0.30569 -0.5295 0.17032 0.17023 -0.56377 -0.60659 -0.10597 0.19994 0.08487 -0.055411 0.23605 0.14321 0.18586 -0.25722 -0.37486 -0.42871 -0.4421 0.032478 0.46614 -0.37997 -0.19464 -0.25076 -0.02603 -0.47412 0.05454 0.51611 -0.15772 -0.12755 -0.46497 0.42531 0.11972 -0.028127 0.38511 0.16271 -0.10905 -0.23482 0.28299 -0.018438 0.10673 -0.10013 -0.052686 0.3988 -0.27485 -0.23023 -0.019216 -0.34234 -0.28161 -0.023148 0.39728 -0.41685 -0.016841 0.14303 0.18241 -0.23027 0.19643 -0.25724 0.053899 0.59349 -0.33607 -0.09378 -0.4347 -0.057469 0.025007 0.3633 0.144 0.70758 -0.60225 -0.59975 0.34608 0.079972 -0.20075 -0.64382 0.56427 0.11808 0.82092 -0.37506 -0.078517
rainy 0.79882 -0.088474 0.095858 -0.21416 -0.34292 0.11316 -0.1944 0.13166 0.041268 1.5778 -0.46644 -0.37173 -0.12702 -0.42543 -0.37194 0.41615 -0.06478 0.45627 0.73652 0.17883 -0.30268 -0.092097 -0.415 0.23606 -0.11524 -0.27774 0.12032 -0.23951 0.0014844 -0.42698 0.19774 -0.79877 -0.23886 -0.28201 -0.48989 0.41178 0.46094 -0.048112 0.064097 -0.18505 0.23403 0.15604 0.17098 0.35929 -0.016893 -0.0048583 -0.43086 -0.0055582 0.18224 -0.25734 0.20495 0.63758 0.16207 0.25781 0.1068 0.17011 -0.10471 0.046167 -0.00077922 -0.093154 -0.34323 -0.091247 -0.17217 0.15064 -0.12451 0.063129 -0.53776 0.34036 -0.02031 0.04103 0.023887 0.52106 -0.13209 0.12916 0.42949 0.55084 -0.022252 0.73817 -0.24726 -0.065865 -0.13892 0.62589 0.28138 0.22852 -0.24562 -0.099341 0.40787 0.34139 0.25099 0.48796 0.28319 0.062273 -0.28228 0.35598 -0.03686 0.2321 -0.052458 0.29261 0.34978 0.39256 0.36281 -0.091821 -0.45035 0.3808 0.032804 -0.83113 0.30439 0.17117 -0.027364 -0.57136 0.93136 -0.54424 -0.17448 -0.12139 -0.77452 -0.24865 0.017369 -0.0074766 -0.11791 -0.39556 -0.04046 0.15456 -0.82225 -0.67022 -0.36314 0.010668 0.19015 0.12989 0.14851 0.42463 0.088344 -0.25343 0.40158 0.61772 -0.27913 -0.034839 -0.47263 -0.34099 -0.30031 0.043965 -1.7558 0.055654 0.17339 -0.10856 -0.28862 0.70794 -0.47111 0.11769 0.078576 0.24769 -0.26872 0.1594 -0.32934 0.1917 -0.60596 -0.49552 -0.45925 -0.16155 -0.33213 -0.57111 -0.15687 0.12979 -0.2175 0.20737 0.32663 0.25712 0.12274 0.29825 0.17355 0.16224 0.34756 0.15582 0.27684 0.022577 0.14847 0.29027 0.4332 -1.0535 0.096425 0.30422 -0.1274 -0.56124 -0.38612 0.67832 0.60339 -0.056818 -0.41179 0.21175 0.38233 -0.67649 0.60099 0.53606 -0.086267 -0.32052 -0.12134 0.27525 0.19746 0.42445 -0.38359 -0.148 -0.35783 0.3017 0.2688 -0.14867 0.17209 -0.53944 0.23025 -0.27539 0.63008 0.11817 0.53002 0.23958 0.19434 -0.35327 -0.035472 0.090611 0.20687 -0.2311 0.045987 -0.18036 0.26513 -0.34912 0.10621 0.092397 -0.18985 -0.57405 0.024592 -0.45576 -0.54051 0.11972 0.17631 0.33568 -0.11009 -0.057582 0.27163 0.089699 0.013619 -0.50816 -0.37442 0.054538 -0.19622 -0.066578 -0.32675 0.53985 -0.36065 0.70939 0.1893 -0.03805 0.37606 -0.16236 -0.41779 -0.28263 0.33127 0.068279 -0.07293 0.90388 0.075315 -0.16431 -0.26873 0.25977 0.15593 0.21851 -0.20573 -0.09598 0.2696 -0.059996 -0.56335 0.37585 -0.74575 0.36206 -0.40855 -0.041057 -0.5006 -0.071272 -0.18041 0.39373 0.068084 -0.25194 -0.12891 0.22408 0.53718 -0.8668 -0.75944 0.57988 0.33321 0.037822 0.54399 -0.56188 -0.011485 -0.068495 0.19279 0.56729 0.016486 -0.33259 0.11604 0.00292 -0.057465 0.16891 -0.19725 -0.4211
noisy 0.28251 0.11603 -0.30243 -0.69869 0.2405 0.17104 0.69043 -0.57217 -0.03917 0.86626 0.27717 -0.68573 -0.031286 -0.32488 -0.79622 0.2116 -0.27832 0.60778 -0.26115 -0.033866 0.041638 -0.11283 0.22101 -0.56391 0.017349 -0.37521 -0.33185 0.021444 0.23159 -0.39546 0.46867 -0.29613 -0.17342 0.056518 -0.14721 -0.003053 0.15068 -0.12322 -0.35181 -0.091562 0.3221 0.098138 -0.17823 0.67375 0.057043 -0.071459 -0.30451 -0.21608 -0.56922 0.08293 -0.27824 0.53113 0.069594 0.71947 -0.32914 0.1819 0.14089 -0.38724 0.34165 0.39263 0.030806 -0.22678 0.11865 -0.34449 -0.20346 -0.35898 0.25992 0.024681 -0.037981 0.35262 0.28983 -0.42703 0.23389 -0.03279 0.64079 -0.14445 -0.35026 0.50233 0.23916 0.13829 -0.013505 -0.16932 0.02692 0.05669 -0.10707 -0.14854 0.19313 0.7048 0.22447 0.25954 -0.57913 0.18124 -0.0065911 -0.18084 0.12583 -0.2353 -0.048436 0.29769 0.44608 0.28437 -0.13989 -0.4567 -0.047184 -0.18791 0.16122 -2.061 0.54616 0.38621 0.2506 0.96222 0.53474 -0.82372 0.34747 0.063144 -0.37744 -0.34182 0.0048855 -0.10559 -0.43322 -0.37783 -0.59848 -0.045168 -0.48225 -0.35764 -0.46537 -0.30606 0.38702 -0.22274 -0.036605 0.17077 0.46618 0.12976 0.23028 -0.059206 0.18326 -0.11063 -0.23829 0.38218 0.57196 -0.36732 -1.6633 0.4643 0.065743 -0.11147 0.19057 0.058649 -0.31301 -0.34885 0.53636 -0.55979 0.06242 0.31629 -0.057665 0.71873 0.20519 -0.25884 0.12597 -0.19968 0.096828 -1.3005 -0.48562 -0.21507 0.41519 -0.15738 0.33137 -0.19533 -0.057572 0.097459 -0.079749 -0.005664 0.2695 0.19725 0.069826 0.034974 0.32952 -0.21985 0.2132 0.015254 0.27658 -0.10931 -0.10746 -0.61929 -0.004328 -0.11048 0.061577 -0.16299 -0.079989 -0.19308 0.75746 -0.6769 0.69413 0.12521 -0.16516 0.39819 -0.52401 -0.23294 0.25422 -0.25958 -0.95671 -0.30733 -0.57137 0.84477 -0.062219 -0.40933 0.21328 -0.31047 -0.081699 -0.41509 0.34357 0.033468 -0.2667 0.2476 -0.0080251 0.093345 -0.20123 -0.004764 0.53547 0.25746 -0.2472 0.21727 0.72676 0.15481 0.10015 -0.35038 0.071619 -0.16713 -0.11585 -0.26379 -0.064126 -0.41479 0.903 -0.14216 -0.017008 0.18165 0.61091 0.52886 0.17158 -0.42182 0.011626 -0.42407 0.46132 0.41097 -0.23222 0.29271 -0.30039 0.22639 -0.14762 -0.2151 0.29626 0.14259 -0.19163 0.37434 0.11735 -0.058453 0.16791 0.28872 -0.072904 -0.40257 -0.16346 -0.19051 -0.59202 -0.43856 0.19996 -0.42074 0.35443 0.11684 0.28781 -0.068452 0.15794 0.35784 -0.37858 -0.19799 -0.24895 -0.53306 0.33147 0.13356 -0.037518 0.2068 -0.44504 0.54883 0.40908 0.26165 0.25913 -0.030259 -0.40156 0.18455 0.13046 0.057234 -0.069618 0.090133 -0.54167 -0.15463 0.44674 0.43029 0.33113 0.92139 0.61743 0.56877 -0.22134 0.34732
blurry -0.14548 -0.53493 -0.40291 -0.37992 -0.048979 -0.22377 -0.33345 0.14608 -0.37813 0.56047 0.47706 -0.085291 -0.29873 -0.76052 -0.093826 0.077374 0.032422 0.59217 -0.13672 -0.32241 0.10085 -0.52226 -0.14954 -0.55367 0.069002 -0.17558 0.79303 -0.55446 0.44163 -0.24755 0.37057 0.15925 -0.60416 -0.16357 -0.74478 0.32628 0.11509 0.41252 -0.020544 0.13014 0.70768 -0.26633 -0.24761 0.21161 -0.10298 -0.15623 -0.26498 -0.13201 -0.30003 0.07107 0.19153 0.1524 0.12915 0.2732 -0.43494 0.12959 -0.12463 -0.274 0.62552 0.16164 -0.57224 -0.30669 0.32091 0.0011711 -0.45562 -0.35917 0.13889 -0.21454 0.0093395 0.096044 0.47333 0.28299 0.31043 0.64681 0.28464 -0.45062 -0.20917 -0.10047 0.046224 0.241 -0.012148 0.11047 0.029328 0.58174 0.30992 -0.47479 1.1036 -0.17795 0.98474 -0.50639 -0.48266 0.23092 -0.072158 0.10501 0.31489 0.096059 -0.14227 0.062812 0.2779 0.21785 0.075886 -0.10877 -0.2496 0.032827 0.73145 -1.5108 0.42392 -0.36712 0.29074 0.19372 -0.063219 -0.060645 0.064881 -0.72543 -0.1237 0.096915 -0.26094 0.14566 0.25905 -0.086038 0.23181 0.12269 -0.23951 0.6377 0.37917 0.18588 0.2986 -0.39205 -0.020325 -0.011484 0.018048 -0.053738 0.26219 0.81906 0.078628 -0.48116 -0.092886 0.55278 -0.62526 -0.2014 -1.6964 0.65848 -0.11355 0.025825 0.17369 0.15913 0.4045 0.15728 -0.10699 0.18139 0.1683 0.038467 -0.09238 0.41162 -0.44595 0.17252 -0.28424 0.36919 0.035191 -0.78751 -0.22217 -0.3912 0.073687 0.26625 0.067662 -0.14392 -0.35779 0.77154 0.058145 0.047855 -0.47137 -0.19982 0.035001 0.14314 0.040005 -0.19117 -0.25561 -0.59123 -0.23968 -0.047955 -0.22777 -0.46281 0.35034 0.25096 0.69522 0.4998 -0.34002 0.4275 0.14445 -0.11596 0.38895 0.1151 0.038192 -0.34284 -0.40715 0.28825 0.25678 -0.23833 -0.53113 -0.3968 -0.5398 0.1813 -0.26804 -0.19344 -0.45219 -0.10834 0.016426 0.10537 -0.14599 0.47504 0.27278 -0.10637 0.59327 -0.5345 -0.74187 -0.39933 0.24962 -0.2534 -0.25697 -0.60797 0.17212 -0.15683 -0.47117 0.34206 -0.013201 0.22963 0.23916 -0.46706 -0.38547 -0.33696 -0.17652 0.06236 0.74213 -0.088554 0.72814 0.77656 -0.021558 -0.20828 0.55498 -0.090014 -0.089547 0.20878 0.11513 0.070467 -0.44696 0.10063 0.039339 -0.2061 0.21509 0.46631 -0.16732 -0.54909 0.021807 0.14259 -0.050141 -0.15193 0.075937 0.25896 -0.073208 -0.007788 -0.14393 -0.3582 0.29237 0.20018 0.38095 -0.26397 0.16818 -0.33954 0.44312 0.10984 -0.7714 -0.0088642 0.013605 -0.49595 -0.44108 0.1086 -0.40874 -0.30602 -0.32462 0.29582 0.35746 -0.24449 -0.1468 -0.27843 -0.14248 0.27439 -0.85798 0.30087 -0.13355 -0.35441 -0.6505 0.29111 0.52614 -0.15773 -0.13083 0.28766 -0.22937 0.21164 0.26882 0.58604
hazy 0.19897 0.041904 0.15359 0.17442 -0.30415 -0.18888 -0.48282 0.43765 0.093251 0.69563 0.69154 -0.34034 -0.56345 -0.41398 0.027481 0.086071 0.27807 0.28936 0.37855 -0.74139 0.26281 -0.41519 0.097184 0.45846 -0.16499 -0.41249 0.52823 -0.33272 0.50252 -0.16995 -0.11428 -0.047228 -0.32358 -0.24554 -0.13368 0.34705 0.12781 0.29677 0.14424 -0.14158 0.77365 -0.16671 0.30658 0.21286 0.49026 -0.15479 0.12807 -0.40365 -0.30651 -0.1682 -0.33833 0.76506 -0.31632 0.40418 -0.4262 -0.40013 -0.72648 -0.035811 0.27893 -0.23502 -0.22361 -0.51358 0.47212 -0.1191 -0.78227 0.075299 0.20854 -0.28689 -0.16161 0.45633 -0.01149 0.16511 0.36439 0.29196 0.30844 -0.042264 -0.62824 0.51314 -0.10787 -0.28593 -0.24983 0.66385 -0.359 0.42755 0.13004 -0.28692 0.78109 0.61826 0.38696 -0.34218 -0.36076 -0.12295 0.38082 0.40129 0.09702 0.58262 -0.39288 0.34037 -0.47119 0.13819 0.51861 -0.093651 -0.13639 0.038595 0.22158 -1.5844 0.1307 -0.36919 0.67578 -0.24881 0.10781 -0.055074 -0.32842 -0.11083 -0.28901 0.42779 0.043174 0.10568 0.27236 0.13543 0.132 0.17715 -1.2136 0.53833 0.36894 0.12364 0.65224 -0.42554 0.22065 -0.31433 0.11607 -0.18874 0.21727 0.37293 0.086599 -0.093309 -0.21688 0.52283 -0.53499 0.050618 -1.2252 0.35327 -0.045864 0.14709 -0.038821 -0.26057 0.20968 0.12889 0.456 -0.223 0.12924 0.049324 -0.14016 0.12505 -0.23621 -0.068747 -0.70572 0.015077 -0.046419 -0.26822 -0.25285 -0.59381 0.44915 0.3164 0.28145 -0.36337 -0.32659 0.62414 0.089048 0.0040681 -0.032474 -0.10095 0.2198 -0.35048 0.18757 -0.021483 0.39323 -0.88559 0.10469 -0.1877 -0.22093 -0.25244 0.40122 -0.19292 1.0263 0.57383 -0.45765 0.018468 0.034467 0.14055 0.57038 0.53991 0.090045 -0.24761 -0.35894 -0.066565 0.13264 0.31722 -0.37171 -0.76728 -0.28146 0.73226 -0.64323 0.5306 -0.3634 -0.39485 0.17238 -0.34214 -0.19833 0.010966 0.21146 -0.16341 0.44266 -0.71148 -0.41365 -0.10571 0.22949 -0.55106 0.15439 -0.31781 0.39177 0.35613 -0.57339 0.51624 0.16147 0.030364 0.38391 -0.51536 -0.41606 0.0090449 0.049672 0.47305 0.13329 -0.0061645 0.16467 0.67019 -0.52132 -0.32106 0.29385 -0.049822 0.099034 0.21898 0.046332 0.046434 -0.76272 0.71994 -0.12281 -0.41837 0.77644 0.15152 0.14379 -0.93665 0.18206 0.78859 -0.39457 0.24247 -0.4685 -1.0235 -0.14825 0.20765 -0.17892 0.23671 0.14766 0.50996 0.14081 -0.44557 -0.54794 -0.19714 -0.28892 0.30729 -0.52669 0.32636 -0.074715 -0.87568 0.077603 0.50834 -0.092164 -0.68206 -0.059339 0.29315 0.4263 -1.0072 -0.044088 0.093827 -0.41372 -0.29158 0.032169 0.36534 0.59657 -0.19541 -0.75648 0.29568 0.41155 0.21071 0.43026 0.085338 -0.36521 0.1713 0.1289 0.47369